{
    "bias": 0.509675760908854,
    "intercept": -0.9994798102491765,
    "kernel": {
        "parameters": [
            {
                "name": "gamma",
                "value": 0.00390625
            }
        ],
        "type": "rbf"
    },
    "modelName": "cStress",
    "modelType": "svc",
    "normparams": [
        {
            "mean": 0.05704622040795476,
            "std": 0.07183008046887908
        },
        {
            "mean": 93.25398057224814,
            "std": 5.983884547974932
        },
        {
            "mean": 13.964798061977831,
            "std": 1.279217118206528
        },
        {
            "mean": 71.53440292003164,
            "std": 5.531198025876292
        },
        {
            "mean": 5.1584785023107225,
            "std": 0.5608736126623941
        },
        {
            "mean": 0.914410577936821,
            "std": 0.1379777076564582
        },
        {
            "mean": 0.8738839285714286,
            "std": 0.14307931245439875
        },
        {
            "mean": 0.07512555803571429,
            "std": 0.0163866584139995
        },
        {
            "mean": 0.9819196428571431,
            "std": 0.1265813950370089
        },
        {
            "mean": 0.7993303571428572,
            "std": 0.13055822462006703
        },
        {
            "mean": 70.51942976687937,
            "std": 11.449410111281033
        }
    ],
    "probA": -3548.7394596283966,
    "probB": 3547.0790189363493,
    "support": [
        {
            "dualCoef": -0.004419417382415921,
            "supportVector": [
                0.919932381102335,
                0.3031263555518369,
                -1.448116533654843,
                0.9384202362999197,
                2.0966727142016386,
                1.069240740803015,
                0.7722365276516572,
                -0.2937180915178156,
                0.7600276258191747,
                0.8189422241937342,
                -0.8355931634479637
            ]
        },
        {
            "dualCoef": -0.004419417382415921,
            "supportVector": [
                -0.553308148263732,
                -0.5056436468790394,
                0.4474681728752301,
                -0.03487355249555134,
                -0.4474573394609885,
                0.8116549117556142,
                0.9906468587046512,
                -0.05533819115553057,
                0.883465987321129,
                0.8668135859420116,
                -0.9993970500438323
            ]
        },
        {
            "dualCoef": -0.004419417382415921,
            "supportVector": [
                -0.19662856316726104,
                0.201634993230382,
                0.12581407193950164,
                0.40319432733024785,
                0.11324548788982268,
                0.9580897360651813,
                1.0998520242311483,
                1.494131161199322,
                1.3772194333289465,
                0.8668135859420116,
                -1.0775761777373156
            ]
        },
        {
            "dualCoef": 0.004419417382415921,
            "supportVector": [
                -0.670184947869857,
                -1.7343693647436114,
                0.5173690980465903,
                0.942223743529009,
                0.15784314891636758,
                0.16203342241229463,
                0.33541586554566916,
                -0.2937180915178156,
                0.26627417981135715,
                0.4599070110816586,
                -0.47466934552486223
            ]
        },
        {
            "dualCoef": 0.004419417382415921,
            "supportVector": [
                0.19376732937541707,
                -1.5795549312693518,
                0.6022933668744304,
                1.931977436840519,
                0.751277187100617,
                0.09939592631387689,
                -0.21060996208681587,
                -1.2472376929669555,
                -0.2768546107972411,
                0.100871797969583,
                0.05167788894632788
            ]
        },
        {
            "dualCoef": 0.004419417382415921,
            "supportVector": [
                -0.18506306334840164,
                -2.4432422959059,
                0.25863704960437106,
                2.2477323526941224,
                1.2750285830238108,
                -0.23900059631020912,
                -0.15600737932356737,
                -1.604807543510383,
                -0.5977943507023236,
                -0.01880660640110887,
                -0.0047848143878546365
            ]
        }
    ]
}